0.073420182787874
0.30211071004931
0.060647904048952
0.17216842148222
-0.17905731229636
-0.43055754441557
0.216352710595
0.44202169228558
0.049780647374896
0.26690214472188
0.18604469520237
0.43434061976129
-0.22224069903348
0.086011870913618
-0.36118471351143
0.23164804964732
-0.26710594258835
-0.067605489768245
0.24673875529733
-0.11815251655487
0.11923523052646
0.296962474313
-0.058147140668724
0.36474033578571
0.11754000323295
0.30290979432616
0.41422355553209
0.42645159635364
-0.43014206631508
0.006617160457383
-0.030022738954184
-0.09998698715012
-0.34136507107588
0.29657444854517
-0.076316222476372
-0.032913510992757
-0.11412155864445
-0.15084807352301
0.10060924652538
0.29483096704563
0.06449658377034
-0.39780724243552
0.16393519804925
-0.28374920276048
-0.39252468067567
0.29891428651041
0.41740134522415
0.44014820578044
-0.1386419758531
0.40259442112514
0.20888999585661
-0.11733028940145
-0.10226616076765
0.10700219568474
-0.28979603558847
-0.16599505620909
0.33333898301411
0.22844437686655
0.26905213613127
-0.28556221001397
0.23322420069776
-0.13504435312686
0.32031218490799
0.032889514129509
-0.39340040550872
0.38374878815836
0.37056601268076
-0.08010501423309
0.014938994037795
0.1797382886858
0.26102112742214
-0.2597643483809
-0.15706579261405
0.0077709778685434
-0.10899283347715
0.40205099783667
-0.29826208067437
0.39996730460636
0.057840151003084
0.33086608324488
-0.35600996200147
0.39665598893059
-0.084037938736972
-0.24046131619527
-0.023693124799171
-0.24518016321244
0.11081570290664
-0.20617592541594
-0.40119160520092
-0.38392721577798
0.32401941916777
-0.14519324926572
-0.16111684838436
-0.37972959440664
-0.21916677401146
0.26511244703927
0.25905815005715
0.016977048950579
-0.33697441597792
-0.14011771287833
0.12654608173783
0.34160608683095
0.38412425302126
0.17340533398908
0.089154263667471
0.049336853408087
0.30161399055445
-0.027993314237585
-0.39768464958422
0.43943738195885
-0.14609015753801
-0.28170926134219
-0.18312317961951
0.2148851551988
-0.12328320402509
0.16761740861009
-0.43142642519127
-0.44029730107008
0.080337028016406
0.35006025793084
0.12333351766626
0.12831248144085
0.15043438624075
0.35228342017628
-0.40980469499744
-0.42523891589249
-0.42792144615792
0.064507928885238
0.33223651300945
-0.0042107024830277
-0.28284659404521
0.24210319229649
0.012620198951375
0.1977879005089
-0.10105896395079
-0.26167647066512
0.24142569975203
0.061334252744422
-0.34865140516392
0.30064320100741
-0.077950895156499
-0.42958435563175
-0.27626818007398
-0.43191960253876
-0.18909987895611
-0.14878605540969
-0.3084413362037
0.1763596391004
0.19158806488317
0.41905442859396
-0.10506099300069
0.22424364658909
0.10780527964822
-0.31147966563851
-0.05629956517863
-0.25131175288643
-0.27574927271463
-0.11359456506917
-0.35205965021519
0.025757997723278
0.08704467818723
-0.26866491815807
0.33863760049726
0.14280493646383
0.03047022428543
0.14564734982454
-0.047751498938483
-0.013680418235796
-0.18131615864203
0.15344578526118
-0.091678789622518
-0.41630572380656
-0.3158075853193
-0.13849208786913
-0.43739025608346
-0.08911485797507
0.061520566067333
-0.43369919102806
0.33903629488638
-0.41534028696935
0.30795832715445
-0.051778693862358
0.12229759922954
0.4170156415537
-0.26536904420403
-0.28781936763067
-0.018192909019022
0.26751527277781
0.086142828552551
-0.11007007105868
-0.13646028014611
0.12785234801218
-0.34538452744585
-0.29184707183826
0.40106422833166
-0.43988561737991
0.17114730822353
0.33646769470291
-0.41664574954377
0.047014045774367
-0.034830918488769
0.18884998179453
0.17877099491108
0.053267769622243
-0.40476438630662
-0.33402387828217
-0.31429702053541
-0.087243098320209
-0.24166818607642
0.12423965641951
0.26532955002889
0.39440099821765
-0.2711589233812
-0.32753993903015
-0.32174261423246
0.21274445886425
0.077762223176418
-0.045193412353348
0.29571086564043
0.0047406974394654
0.10129742772881
-0.4124269560558
-0.037849999067318
0.17819432843978
0.14388850668035
0.12863727761387
-0.22911876695393
0.43989364742464
0.43796520978152
-0.11049367396139
0.28511645942849
0.1350130992687
-0.35832981266093
0.33755134683781
-0.32142675968725
0.32915957109529
0.11990337241138
-0.18382856041972
0.26200233630373
0.21940628363973
0.065071237368783
-0.048314986143679
0.060991170776063
0.031303725056817
-0.096749972447302
-0.15021982784391
-0.070014252838754
-0.012909979537446
0.068332422969024
-0.15314163929981
0.072105900074057
-0.085989167077215
0.022975467345801
-0.15566112932985
0.15795246885826
-0.075580244964392
0.12214451304141
0.03368528696812
-0.0036902275959678
0.016902050766758
0.094988316241825
-0.12466992316579
-0.1543006941203
-9.675096200705e-05
-0.095764709349119
-0.03197459328858
0.1446612565364
0.10451335284877
0.0020043749821758
0.11689617121455
-0.15032774352731
0.11319611571152
0.038147063836345
-0.032462731304923
-0.015484890471417
-0.13054450877972
-0.12216652748167
0.10400559582411
0.061391636799959
0.072021813731457
-0.024286759712755
-0.036354245050309
-0.11463183186582
-0.11759256798996
0.048107359811697
-0.078674402254227
0.041282348162651
-0.15036329879865
0.093367025248324
0.082570924163462
-0.13952197584738
0.13636127386627
0.072298062096727
-0.0045798889022896
-0.12566138871725
-0.0045676525277802
0.040950428278555
-0.12092870816529
-0.13855379849259
0.10777879388154
-0.038963588698501
-0.032425887776893
-0.022999667248689
-0.15106315476471
-0.09496581023389
-0.063177841390454
0.089328854797582
0.14892589599459
-0.066320051191862
-0.052015000758309
0.069574726099062
0.13038223252506
0.022171635966402
-0.056805391556056
0.12958876416318
-0.044608289582316
0.069372093849045
0.15718658488496
-0.055139577629435
-0.12414640887088
0.016348821264397
0.14674160833834
-0.10136162615907
0.10059470840979
-0.091383005260125
0.060668367068018
0.04936863782437
0.069891772887362
0.013291757092021
-0.11003837349891
0.059549577375381
0.11713999532297
-0.10985527790298
-0.047284083998623
0.12026333849298
-0.12403484350148
-0.063704251047132
0.078491178036414
-0.080914745453724
-0.10605726643751
0.1189512632552
-0.095576200951348
0.12388521021942
-0.020257988102405
0.02370541621458
0.096717348492018
-0.097453555883564
-0.0069224797683367
0.10458405436651
0.11559656200923
0.088356890751527
-0.065416724572843
-0.10190079679859
0.06088991798311
0.046245923432976
0.13084346663458
0.12133241360253
-0.030815358672773
-0.056497514833129
0.094051376347961
-0.12372667079574
-0.14366261392479
-0.034730143103071
0.089663668876913
-0.10766367761017
-0.054900227491422
0.12911100477227
0.058833431013978
0.10262191384011
0.020363728699884
-0.047961620622674
-0.14112032215218
-0.030464867094325
0.11326030355037
-0.041084021504489
0.027913753182345
0.082977316750973
0.14958246588112
0.0055988261743632
-0.11229609401827
-0.15454211292245
0.0021136729979276
-0.0080306114484192
-0.052520655760526
0.0057729388068103
0.14123014116476
-0.1417642598411
0.13932090299828
-0.086669478510303
-0.14595759753775
0.11883930624297
0.11207831079085
-0.052118309527002
-0.13425414939784
-0.095195350175367
0.093573055949999
0.073212196257251
-0.05958294275129
-0.0092692360243065
0.086568236229355
0.039856612359915
0.002023853129615
0.062507925861949
-0.11072733210314
-0.055457035929132
-0.064166971806049
0.017788355852739
0.051696836757999
-0.033574816866801
0.1252119127178
-0.077679845572798
-0.066846999803141
0.063439265660315
0.1263596775571
0.0096032907593428
0.05589415607133
0.03739881799377
-0.058175032912074
-0.015254098816032
0.12121866321457
0.077280464688349
0.025726649246707
-0.021785379050782
0.063339789616165
-0.15619962216299
0.13472103985442
0.086658962314757
-0.11603227963546
0.082324293051669
0.073271223212771
0.14989415935187
-0.15524764726586
0.088854968985184
-0.13618851464511
-0.11612682696006
0.12884026881847
-0.11433917040501
0.061761891450263
-0.079318362132598
0.038519048644602
0.030091422165933
-0.14050642871447
-0.052965574150892
-0.12186607322247
0.13888345394803
-0.054292066844753
-0.04376253599177
-0.13408463054725
-0.15757571831896
-0.067041883707221
-0.099743254757706
0.12870575087697
0.05633945004189
-0.059070977111903
-0.023805967396216
0.082190639237686
0.14117274095639
-0.0022496385597055
0.14658939334618
0.0028288440325456
0.10801198390894
-0.079680772802267
-0.11162317898972
0.017665524119251
0.056832417857651
0.096113154070567
-0.048720453331454
-0.013438590662673
-0.12854028070074
-0.15805722248429
0.098752134727476
0.066537475462288
0.15570510129918
-0.019110492889683
0.060808673258866
0.088435046384261
0.021020731488711
-0.026050126417866
-0.11136204777242
0.12218599151659
-0.14489133003433
0.082028291149145
0.019120662143623
-0.012187060800259
-0.11193350270787
0.091033009691034
0.02013961564866
-0.076146011014132
-0.049027824966259
-0.065572304340241
0.12574394759906
0.040670996828843
-0.092850953124603
0.040653891293677
0.11420853004323
0.12701967829643
0.10382506488503
0.15839969671038
0.011942284014049
0.11339392916339
0.070388104880337
-0.13933524948514
0.076638977027139
0.063498375996156
-0.1329124900927
0.082060249085109
-0.017748319910328
0.059335358856396
0.14670499935901
0.042685613496821
-0.12495436333129
0.002293682794667
-0.15289732556865
-0.12423993746256
0.076991803751511
-0.027730161056007
0.022284123226349
0.13230367564712
-0.029108201027029
0.0179417077599
0.091999474982005
0.1176547173972
-0.13667776007966
0.066215754153135
-0.10127736860664
-0.022499441875462
-0.13650725673231
-0.067880426601395
-0.063451631985823
0.023604610129133
-0.055678110511433
0.11984593555194
-0.10559250763128
-0.11935697445707
-0.090269194012876
-0.14445559327885
0.069579311737283
-0.14200502560632
-0.13626390511532
-0.12916558340088
0.11733433663701
0.085045038545991
0.060459458011244
-0.055015425833805
-0.15315257339008
0.076747407776691
-0.051505767622073
-0.1136459824705
0.13639580115678
-0.0030897269750114
-0.019684646495159
0.07329665480681
-0.047096393327255
0.025652679363616
-0.025291257643022
0.0097759701797587
0.070791981345869
-0.028217464920914
0.032068838694618
0.027967319375104
0.012531339472147
0.019712324723284
0.065127027401679
-0.016347488033558
0.053587760060828
-0.14205139145836
0.10642489404873
-0.025796781992171
0.041636669828686
0.11223820062728
-0.029364305887135
-0.11086814837555
-0.056597350662413
-0.14632924311096
0.0071004556476697
0.031356906268173
-0.023834544410729
0.12469431215124
-0.019524913689014
0.035570365799737
-0.054405904081351
0.1491612267277
0.090176577678391
-0.11732254998113
-0.1253475617535
-0.13346706494177
0.091341118036071
0.13691541552475
-0.054002117517836
-0.04025728951604
-0.0056586956041259
-0.12669930970806
-0.12691749393337
-0.059089768719645
-0.087203591814812
-0.0021117314254847
-0.14842435486343
-0.12163759633865
-0.11594276816412
0.040482327223766
-0.051156074612338
0.063920543205377
0.11481639921943
-0.017148002001323
0.05317790928739
-0.0039128031703229
0.090482785681414
0.13337078923583
0.15255673837588
-0.0051087645848348
-0.12432840611308
-0.038052120361284
-0.058466557230176
0.073408232757119
0.14086865214467
-0.12916852376765
-0.096017308546989
0.093028207623759
-0.12353080871428
-0.02797366739075
-0.098372942035054
-0.13148846408511
0.072879179220432
-0.010247248182768
-0.081027276437388
0.09377952596392
0.051214741252742
-0.062579202104228
-0.059017727933689
0.059050156299462
0.030338637920189
0.03059887108616
0.096350244681703
-0.10111788284234
-0.12046648858927
0.051022486414594
-0.12401773441399
0.018159190818637
-0.039660032490417
-0.025447569448254
0.15738567913831
0.014878285818242
0.10722319183516
0.056623196428701
0.070892925886501
0.12681945802875
0.026647482480506
0.10750510515751
0.099195396266397
0.053945241388961
-0.10040431761636
0.0060350843324649
-0.15598194690644
-0.075771874397139
-0.14766701813329
0.062484628082392
-0.029384191453453
-0.032836686775025
0.12150613177844
0.008417141619256
0.062844357309342
0.097393969853653
-0.11839816832888
-0.14271137582272
-0.00050582065092042
-0.054056691968506
0.067718321925392
-0.13156516499893
-0.026862832817707
-0.069850934796722
0.13291947985161
0.067905563856682
-0.037502672741101
0.081339263714202
0.14303776558513
-0.15330640845622
-0.062792977674003
-0.016182911253699
-0.04682178791694
0.12061273587095
-0.076231084833485
-0.057413490635408
0.022274859083791
0.065020913815334
-0.069743400643524
-0.10179850228203
-0.08056504040027
-0.10754830820413
-0.1408360662322
-0.0095016134398362
-0.070863914346781
-0.14680335099665
-0.14049159176824
-0.07357088529593
-0.024828616639663
-0.12879416050312
-0.018387217007244
-0.096247983993113
-0.048179442393264
0.03338254543383
-0.074989906306256
-0.1531407861734
0.10290931275209
-0.15187980773213
-0.10709759749477
0.078420597704929
0.026617630829447
-0.15609038527975
0.085000280820819
-0.1223646714413
0.10154183499365
0.10786540283537
0.11870101868285
0.036123647720141
-0.15653873289756
0.13927940874777
-0.099657567237533
-0.016745267045184
-0.015236346727897
-0.031128655625522
0.15527736115962
-0.1486269248196
0.020293069090011
0.086939935586387
-0.014254887117379
-0.0067013782837729
-0.10745256422188
-0.058709359415448
-0.12115110232617
0.061925023802641
-0.0075009118251694
0.0060546859506728
-0.1186777582336
0.10513303649318
-0.054043090134576
0.033884754520562
0.045847918388665
-0.03749452091144
-0.11462944628696
-0.040985843534966
-0.083072944949083
0.0031567068371025
0.090189780322152
0.010393464590323
0.0084164185549569
0.13413922124121
-0.0039679283617233
-0.0071216506536901
0.14162202380989
0.055994387081715
0.02461769042413
0.055452824938202
0.096481549129871
-0.15321550525911
-0.042366461708223
-0.040113127740657
-0.10057073914303
0.15289708394444
-0.043199507366467
0.0043889292530872
0.067680865177075
0.011228478397596
-0.13251273957551
-0.083267249506065
0.10173005805095
-0.081918911436886
-0.15132858232373
0.038969272432416
-0.044275689351955
0.01966663934847
-0.10222003029386
-0.039318263338227
-0.13143042887651
-0.055218557923962
0.055392130836862
-0.15028475582663
-0.057809462995413
-0.12443962534941
-0.050835011976429
0.09964678385045
-0.13254121930581
-0.015272859760404
-0.059632429460864
0.0090885267593395
-0.14919430458235
-0.017971132649467
-0.012951033380146
0.062066285917016
0.024830921704753
-0.038038091933605
-0.012641772972728
-0.04386677533936
0.048491961219765
-0.09509353782038
-0.0068069019288209
-0.062257234197809
-0.048560692201454
-0.099851363124976
0.11902295865158
0.069718483456764
0.098309108079988
0.11904499362912
-0.14331098459211
0.13814189035614
-0.086098385218808
0.061936413974991
-0.10406314224349
0.032849382303073
0.061875023518434
-0.15533999580494
-0.12621191757508
-0.14743576429359
0.15662368095643
0.11556915308184
-0.065140636569116
-0.02731081845256
-0.01862141383769
0.061665018806279
0.010889872154906
0.070331547358049
-0.078424578160696
0.10495673203286
-0.13233469351306
0.031415061225747
0.15669824324306
-0.00986307154836
0.13884458590095
-0.10270784411152
0.11579755288764
-0.14704470010542
0.027410120017394
-0.080038311371072
0.12810516283258
0.021583672238399
0.11594607735144
0.15805333203489
0.1161113438485
0.058828481689546
0.0022571092471419
-0.14060378665404
-0.10663293297674
-0.15051170390684
-0.11217251728695
-0.051071742469012
0.057433849164879
0.13347340512799
-0.06298290296701
0.10837925756919
-0.059437316306925
-0.15630682128095
0.059172201606416
0.052644792285909
-0.11585051176212
0.12503119382922
-0.022319657765279
0.001687378665818
0.07053572822794
-0.051127284407287
0.13214700483851
0.025961863705469
0.088949198651867
-0.058420823432181
0.14429265308656
-0.15176661528848
0.029055506286579
0.094832432456858
0.00074504069677609
-0.032018459873565
0.026189425951505
0.06380657159796
0.091220313898103
0.044885731923196
-0.088375518289865
0.00723251976602
-0.023614886443292
-0.044306164506919
0.03281624281956
-0.13983386250409
-0.023731581184136
-0.063175758421858
0.0098884334867657
-0.12259485194039
-0.012389661505553
0.1422245617958
-0.1057711509186
-0.14691292561978
-0.15305932565463
0.13269921420239
-0.040418436718064
0.066723171630371
-0.11925597284679
-0.010024252263356
-0.088186800326435
-0.030454935939684
0.082170229466669
-0.0046912150847561
0.05140636031611
-0.12166724709317
-0.020954639089608
0.071625213055557
0.12192512421748
-0.040638939664244
0.094428696902349
-0.060933379345575
-0.025737310108601
0.1153457530472
-0.046432469407148
0.067531346587525
0.085911396007761
0.071687231686913
0.03386415468452
0.0038154321480791
-0.11382152822688
-0.075390982666119
-0.035783993786006
0.11576692162621
0.073983527851269
-0.067486725019206
0.12493789206607
-0.047697392739016
-0.12272638906537
-0.043428067728805
0.006023442196407
-0.14040477742761
-0.066408650867027
0.0039795606407041
-0.042531516115613
-0.028469035920116
-0.023306113989863
-0.12966124742749
-0.041435306061312
0.099311546883555
0.071441237518898
0.12959762709141
-0.14213447941835
-0.040446439378885
-0.055350034830376
-0.01901501725953
-0.050607898024197
0.13877486657573
-0.0066868442053683
0.074133854862068
-0.097441842456909
0.07081133768693
0.046518246915839
0.055989455186488
0.094466192229079
-0.037643724209315
-0.055536517405951
-0.10704810693439
-0.12951051291716
-0.14917725978304
0.039651150975517
0.025721293558494
0.075568893268146
-0.0017304251528125
-0.13952395822598
0.11433494894607
0.071593084365887
0.14441029894396
-0.04894097201805
0.0766741039349
0.041081278845866
0.13687615207483
-0.0058983998192491
-0.030508081874916
-0.13741554538839
-0.14480455404844
-0.063632931639973
0.018292321152782
-0.080963374487388
0.13784723395469
-0.070789353176107
0.0039471473030813
0.027609382101412
-0.020707165561379
0.1052290435017
-0.10891904667128
0.12742994841087
-0.087900685948946
0.034605079684929
-0.11640631605132
0.00680123738956
0.091298508031657
-0.024075189571074
-0.0616083268533
-0.12537983702441
0.010915611027818
0.12107772354372
0.035330134323563
-0.035582955883373
0.11874801580909
-0.066693842952639
0.12800894756105
-0.063665552127312
-0.14349904806047
0.03954344646014
0.030889126000795
-0.019656951781486
0.044787733857154
0.15302719182936
-0.12855988892542
0.0021328877432622
-0.015326850998524
0.068717672870734
-0.073775220632905
0.025113500214173
-0.063698898226575
0.066361439613154
-0.03158730895125
-0.094817301811471
0.15471427238281
0.083737464995984
0.12554947264121
0.046429157385807
0.092406210298257
0.076081853971491
0.048780215053848
0.10328389533178
0.10569343400501
0.083817976245975
0.068686413936795
0.11210173449226
0.10669496587264
0.12008472779648
-0.077563091386231
-0.055552698412639
-0.090286050107489
-0.051225323964951
0.072397766739418
0.066151781941603
-0.094785038610175
0.11163159371881
-0.086892339986
0.13211529555723
0.023608028767954
0.1489634236513
-0.091405781449911
0.026701684833622
0.08134236898915
-0.033793953766261
2.6518471662987e-06
0.037294514677269
0.0009821922223964
0.04247200943819
-0.076117341266379
0.11218166895366
0.029330187642771
-0.1533435579244
-0.11368566670089
0.10402133790011
0.13054091987321
0.0019391390254398
0.14599338072405
0.13088947839786
-0.040569574568453
0.13221067908355
-0.10124548961535
-0.042760575383179
-0.10020030743867
-0.008186361543677
-0.019917628940171
0.14910492323895
-0.11096589303572
-0.076131486225998
-0.065301703999215
-0.060260446114775
0.080002942833958
-0.094283760614786
0.11330470223681
0.14507764088521
-0.010094471448631
0.11427705620768
0.07472420168575
-0.11277879434706
-0.058085964638266
0.15195352092259
0.0020471476306749
0.14214331754707
-0.1282096089362
0.084086976080115
-0.10925396153597
-0.064501472118163
0.071662371352871
0.087630349777619
-0.10750736302617
-0.082373980465454
-0.016905443464323
0.15751681168867
-0.15630510372886
0.037369318430865
-0.051215341469183
-0.12741415595747
-0.083742279353801
0.057658778753397
-0.12052518615281
0.037698249168778
0.085901430951307
0.15192969924249
-0.11502302465899
0.049917706825824
-0.064535724713759
0.15029731709769
-0.04184968793432
-0.086931479204338
-0.11758779024171
-0.037234912601284
0.10927459990574
-0.14755364111703
0.11668900899172
-0.084816399966491
-0.051724952173273
0.051877267604948
-0.11321057085226
0.05365258364964
0.15464917002433
0.019867615647292
-0.085030133419703
0.038539431792761
-0.055395948501675
-0.0048901988109321
0.055578935370425
-0.070805532741969
-0.055673411927963
-0.13106091791796
0.014525272776693
-0.14351031438059
-0.10046624495542
-0.032012345906783
0.13338424182083
-0.056647596287454
0.013214209440241
-0.035535399879925
-0.1045609787149
-0.069010515923405
-0.11952421071894
0.0059955791485678
0.13383474611453
0.049000200125719
0.020351026155377
-0.099019179077195
0.011971557447693
0.0036461569170341
-0.039263333009462
0.073817045805695
0.12059787937277
0.15033788820487
-0.14522466085678
-0.078295933720516
-0.14329224874
-0.15354371834249
-0.057167831120789
-0.12295141606051
-0.064794706315513
-0.071642997253288
0.077652903795254
-0.15069798846775
0.034792193450332
0.093365657511393
0.020099388801492
0.061170625896749
-0.037359942111965
0.1358004612402
0.1237495848969
0.058010442374024
-0.055757741240788
0.11704928396271
-0.022095907932985
0.13033899554781
-0.12318461524391
0.052247655490145
0.066141740490867
0.047752940796063
0.13884005209872
-0.045983321481281
0.010294720719413
-0.02117886921165
0.11079315614625
0.045159950209665
-0.098153975430374
0.03032147342272
0.076672533698446
-0.0048114524810835
0.016859647830118
-0.024455153420244
-0.039348704059666
0.080974349975378
0.13703641220518
-0.045588181678883
-0.089502602363942
-0.093835719128691
-0.032510569131261
0.1517054065594
0.078590691935079
-0.039281519747701
0.040804265446628
0.096330817096563
-0.11820979209442
-0.049451846545157
-0.11965905967913
-0.096209454199178
-0.00053192092989976
0.12578125092464
0.066862174714891
0.14995282590341
-0.024504619555657
0.10533928806256
-0.065720786771932
-0.0024094107735948
0.044165617227944
-0.13906202291142
-0.019375597737234
-0.053206809692686
0.005249911640831
0.048677554246717
0.0030180026829316
0.15401555506798
-0.10287117115513
-0.052129462368017
0.15119657412026
-0.13919402951938
0.1372278094315
-0.14328540206369
-0.025957301317596
-0.11030744784716
0.069598387040693
0.13159250235038
0.026231710627011
0.078126367717827
-0.043139664480089
-0.080094212952037
0.12297872525385
-0.15930062969056
0.11131912714772
0.070094455784793
0.088921548865806
0.13910045229478
-0.0030432924580779
0.06950759155219
-0.14947643463097
0.071342371517172
-0.093849493067646
-0.1236843012967
0.081708175175605
-0.12384547381575
0.1537257260687
-0.019589601488796
-0.024164804570203
-0.040214278675224
0.13424128059688
0.068181569517434
-0.046271893756738
-0.10150353982259
-0.033944299384887
-0.079625277606411
-0.037010033099749
0.14040757550111
-0.14276112232923
0.051021999527205
-0.12180633154265
-0.016249080015942
0.012912950070364
0.15785879339144
-0.070738457106079
0.15569712407338
-0.072786181162538
0.076866518175846
0.068545884313204
0.020522917573245
-0.0068479429534709
-0.068464730787928
0.13626739260819
-0.13944429308784
0.14912118573805
-0.09875204868843
0.034931251500307
0.014790435774603
-0.082587141537591
0.059100015942379
-0.044175227084677
-0.091398217653761
0.093529025054363
0.14769247697919
0.1542923463924
0.069463458659171
-0.12613815289084
0.06692273951604
0.041505416291497
-0.04257150990401
0.1458850909586
-0.13889430202424
0.082005842806009
-0.15023396850492
-0.017558287740316
-0.15814905782521
-0.087524682734306
0.039306953875496
-0.042593119076853
0.0085630644706368
0.089804457175558
-0.068490577644201
0.020458587126253
-0.12414103322623
0.073124204491764
0.14293905399507
-0.10783795366918
-0.035995597650203
0.1267956128352
0.047534758918316
0.12657215714621
-0.11820967270174
-0.10424205999645
-0.092293713901119
-0.14050835819161
-0.08948269175184
-0.02419244395568
-0.0086638181572616
0.0082628090829654
-0.096709938085807
0.044667538706289
-0.05903785645108
-0.13496484803645
0.072163851394601
-0.017496767768192
0.09559268991924
-0.076290212580048
0.11229907934998
-0.045211855843908
-0.1325937097701
0.15932920959726
-0.15304533931456
-0.096894086939977
0.13488435351216
0.019062275912699
-0.05397563670796
-0.0097293370241456
0.029029045483291
-0.1582317997171
0.07779313873494
-0.15479361483342
-0.052473917558777
0.14217059245424
-0.032707603949562
-0.14301327785933
0.11620543408766
-0.15156146106965
-0.079059818414045
0.058835691124608
0.13832787265185
-0.085831665634022
-0.10969366505845
0.039297987121946
0.15223861695927
-0.022459044923053
0.063451569040064
-0.078749524865422
0.15525468263918
0.090651331512233
0.11951166355201
0.0086372144775486
-0.038159537521934
0.050110034887644
0.079526757312978
0.15669712880504
0.092700276494888
0.061280727340884
-0.089293800946179
0.072048062578942
0.014843991541828
-0.12480099494355
0.09327566228232
-0.072645903715696
-0.11614728482047
-0.039981630015436
0.060254972785146
-0.0043490272266971
-0.13125648925642
0.12034020874558
-0.069157505927072
-0.017201695893348
-0.13945846284381
0.029163417483096
0.079081981182566
0.050946039046489
-0.05758934353164
0.022004181793226
-0.086114328965346
0.091935853883703
0.080564152476397
0.13923001849353
0.0088640303835737
-0.13112099556515
-0.044597721865381
-0.0089114062037445
-0.15620970589064
0.13252393346604
-0.14684966056623
-0.087171308649424
-0.0036888287715421
-0.10075311613841
-0.022683821134229
-0.0096119306042871
0.10173137626367
0.1145724936957
-0.073697806424852
0.05567394620366
0.14479821911073
0.023296688471605
-0.058085120766289
-0.046800974228029
0.093674392340043
0.049031304457341
0.10022075704299
-0.10384205145315
-0.064305331155435
0.16313359201031
-0.079904826799671
0.025441943978411
0.051895322310001
0.12107472889976
0.14012678964195
-0.13681221913378
-0.090770920427509
-0.039465182506138
-0.08114329799337
0.042418972797015
0.068949197566659
0.079196943284184
0.095054248179103
-0.13623944661245
-0.023210268702102
-0.15062486398336
-0.075609457359076
0.11823540796306
0.056149415790584
-0.11887322385382
-0.024096469242026
-0.011955686491274
0.12451734015123
0.081829558546962
-0.019424242934777
-0.057696842351971
0.048427180843291
0.089562793581482
-0.056140860341739
0.15169252197927
-0.015759016494198
-0.010593294830451
0.13853812199946
-0.034743054606772
0.075935690427343
-0.097308094948936
0.045571462674779
-0.013480681914777
0.073099540247583
0.057128954253906
-0.020288542536741
0.080179907123977
-0.13844964415797
-0.073848580520328
0.15867614937452
-0.066398010997963
-0.15563569774108
0.0029720594161238
-0.12843427614573
-0.0011944346369501
-0.12276893677315
-0.1147034600618
-0.04253773671009
0.0240329851922
-0.073872242131675
0.014263282525311
0.12212726156085
0.10424213092677
-0.0099523370859763
0.14690391345929
0.060663719950375
-0.10847309891995
-0.090762934549646
0.032260528349906
-0.042578698280731
0.060318246634303
-0.01430562041785
0.0046895924388542
0.030970725343533
0.15066627041702
-0.12283751346215
-0.0034466332227804
0.1005819244059
-0.043676439667086
-0.10714910090222
-0.080133613212592
0.14208427975843
0.13667268804724
-0.007319114775905
-0.020341100625284
0.057233124761501
-0.019087941852081
-0.09125762584735
-0.15217422134141
0.079940881360524
0.13895970802352
-0.11206178493
-0.0530182492093
-0.1523049973276
0.086103359715144
-0.10799797451308
0.019694654287996
0.10053927017398
0.060470856586851
0.15399973158974
0.13864398841497
0.15185315642969
0.11293061288466
0.12716602905492
-0.10002261554215
-0.11785685422922
0.072102340672088
-0.01944623778802
0.13533792259148
-0.14792178445534
0.14244347548305
0.021547240331604
-0.12312276040946
-0.11392572490732
0.14312187987864
0.0024699436396591
0.10357630240563
0.13794304197898
0.06971947815688
0.061305651803493
0.00043870789553244
0.0390288015961
-0.051572173237016
0.091938669607438
0.11843927804203
0.15568837915689
0.0062503187715154
-0.042336514129815
0.10081717517167
-0.062789370575953
0.10913752011039
0.1393306632647
-0.15244693900998
-0.12786583270483
-0.12925849734144
0.015802422246378
-0.010104600466871
0.11171846046901
0.031283279651564
0.13942928784446
-0.0014041981218324
-0.003788920095882
0.073511555403263
-0.061374711153089
-0.029080358877199
-0.046792393490718
-0.098670895047257
-0.11528596402206
0.075895136280894
0.15382129293306
0.029045793482304
0.14641234746981
-0.0025205962417117
0.14931829383135
0.081925720942426
0.078650413460181
0.14216486606714
-0.12547218398088
0.012834681521417
-0.095225615312685
-0.14044588946892
0.049191085856261
0.122612807756
-0.056804901504916
-0.14632651540215
-0.080713956428422
-0.018292673404221
-0.12457203246961
0.11927501176255
0.099529291585326
0.0067784448038112
0.13985843940725
0.15040103030584
-0.033711300810477
-0.13211733403631
-0.14508223359014
-0.15599912611755
0.097625587373132
0.11102102819707
0.13618420764251
0.13525550426274
0.12780432422043
-0.056364381489447
0.065433050840535
-0.034652041676015
-0.059402172403982
0.00099685447904949
-0.033715444225091
0.13843766475295
-0.15148513584025
0.12722421290169
0.069416924569734
0.052545547712388
0.15082234230029
-0.0602613930747
-0.02907876954804
0.094443466003083
0.048091187435702
-0.0048848087224925
-0.088018115484498
0.083647945501998
0.11704038008395
-0.007310763507329
-0.041509840147814
0.054411433701713
-0.10435475969777
-0.0021108968215799
-0.020218715756232
-0.044687077057317
-0.14467220438893
-0.040776370115873
-0.10375792336032
-0.033869419882308
-0.12490713969687
-0.028438972317868
0.05358076165102
-0.055773591370002
-0.022147494632899
0.055539942261657
-0.12743333294437
-0.059427183669243
-0.15559806727486
0.041601691404922
-0.075504066804928
0.021718202952287
-0.0089660990601029
0.02257825936022
-0.044451998048661
0.11894714931729
-0.076770406681591
0.10238098463603
0.1533020380814
0.051311437276802
-0.020358208377133
-0.11797570555473
0.14461221499583
0.029616719193238
-0.10327657211591
0.0013056834447486
-0.087406382596605
0.0085133976288566
-0.12908795631523
-0.043851856508401
-0.053095218939122
-0.13148106568305
-0.13790323596297
-0.12430258518903
-0.094480406969223
-0.12050745103181
-0.058725144213735
0.04158323147175
0.035597678582953
-0.022732822264241
0.12640437495537
0.077776062067579
0.098091389467657
-0.063383176800566
-0.09783036516705
0.085299497671602
0.056121098144463
-0.11140114093386
-0.10663207582692
0.076485481943953
0.10239317251329
0.061801586248032
0.028281965655773
-0.065062173115249
-0.1157392467325
-0.014553894087806
0.029742508499921
-0.0039214303241726
0.10988774649454
-0.049956744029561
-0.092201340266
0.13885225480188
0.13319187483997
-0.093100609598511
-0.064893342497814
-0.12915910616138
0.076787268751491
0.14905993194013
-0.068960504979769
0.10821794603692
-0.12281426136053
-0.15676879470381
0.13788080093578
-0.021918353343304
-0.030616384035246
0.0021335597719077
0.021388812036158
-0.10023726683927
0.11158183708278
0.13149592992472
-0.14527444970215
-0.033188857390848
-0.10623242789957
0.14080324549958
-0.036327564363096
-0.023001148221333
0.085746586730131
-0.087061538045559
0.0057421956485507
0.13088914978693
-0.041567583718952
-0.039392843731348
-0.1235666360935
-0.062380077166237
0.054678865468851
-0.046015866824363
-0.027469034862474
-0.11273827669801
0.032991480792421
0.0079010910721222
0.083498227113555
-0.067781486034572
0.11947961215843
-0.11972804297368
0.14558565061222
-0.012621295151804
-0.0089328197808202
0.030007835259291
0.11227062523845
0.0052110683998681
-0.11632117626378
-0.065500070703528
-0.042248769340199
0.056364732733653
-0.11887150423258
-0.12501362046636
0.065928653493462
0.117128199808
-0.059757119528179
0.041496547529277
-0.13282438392499
0.12473992390396
0.065949561324032
-0.025299849173761
-0.084995793085586
-0.10760604080516
-0.062462798382642
0.099881554377871
-0.04375751191466
-0.026012013753844
-0.039572486125208
0.12766426942918
-0.0031321052256902
-0.031432989686312
0.013503859382237
-0.080998761754742
0.11942669315337
0.06505790901455
0.035458623473096
-0.035732359688882
0.048635680460739
0.13246757679196
-0.082948380645194
-0.0084856785400834
-0.063932383090093
-0.099505515219437
0.13052694047026
0.09860901592582
0.13983863983977
-0.016610695814892
0.042098501550016
-0.041325119830921
-0.0053447290751352
-0.096859662412865
-0.15215092039979
0.14509509664847
0.14710153117394
0.079367440962865
-0.12308661358356
-0.10352844228586
0.12437763395213
0.034377033317977
0.020653940608169
0.037130878348102
0.0099133261295414
-0.10524119066888
0.07962950451832
0.096695433980366
-0.097149639713712
-0.13465396225777
-0.13487762399657
-0.036221772347813
0.010765321433981
0.14248608413698
-0.049390023824629
-0.00046676722892331
0.048867871162998
-0.074295065310784
-0.04391733915481
-0.046613325422486
0.13336609556682
-0.068847191915509
0.017867602550414
0.093125368281476
-0.1573439263645
0.077264730788894
0.1350648969507
0.10549476210411
0.14461066108853
0.152163885646
-0.13621248567504
-0.13097205549859
0.11036428684621
0.02130792576789
-0.12959964297453
0.13363856625039
-0.1280952330416
-0.0016700718560118
-0.078574821302139
-0.12553749975127
-0.06654799125952
-0.077654907781593
0.01413330477111
0.0017099229538199
0.098618845257837
-0.10162669412189
-0.10835627546753
-0.020080199910779
0.099186035753894
0.049548703379409
0.049751215503038
-0.058079683166929
0.028310777491037
-0.067785483269516
0.056021160743163
0.029896133491435
-0.10220674308588
0.0032120971630919
-0.10411016107432
-0.12677319556957
0.13583236100181
-0.12627016268748
-0.16656929246551
-0.097759082553957
-0.03871896084505
0.14371970172078
-0.0066821859912049
0.11931867123935
0.1112150343915
-0.060564662499525
-0.010029833339097
0.10146308854524
-0.16907377495798
-0.051135892872593
-0.0088703843709602
-0.092207229947844
-0.12725466697799
-0.067276071607932
0.052056190120045
0.03180073813481
-0.091048703370196
-0.013629846211256
-0.068951525463126
0.12822362570126
0.12446199030649
0.068821334777863
0.017944683295716
-0.094119092392571
-0.15320019896391
-0.10295679845664
0.06730196779596
0.094509022890278
0.14609010321864
-0.098701173097552
-0.093641863391059
-0.11632237008727
-0.12746795191079
0.12061142318773
-0.01667199220049
-0.053017920784742
0.086120610419833
-0.078771760705289
0.1234667177409
-0.12234268575812
0.030937929401962
-0.049044687214259
-0.053753461541652
-0.12925982652057
-0.14268729836026
-0.073929214605373
-0.10578216061001
0.10985089948357
0.14377262749027
0.11477539953144
0.11005718625813
0.0056941860477665
-0.076668272844736
-0.068246516591095
0.057626738086751
-0.043811756197174
0.13527675452296
0.094269934796872
-0.059921636720484
-0.07436638122256
0.097451952228202
0.095927747789739
-0.11102282516731
0.032991249835633
0.099655409071923
-0.071272565549407
0.1016740134224
0.0078513895511557
0.027593811409323
-0.0016677098804349
-0.026097789194666
0.00011091968466043
0.066274129082131
