-0.035969307785014
0.16539780686046
-0.015832945057905
0.0050341264624631
0.080763018383759
0.15989582943969
0.017447695421555
-0.06497433422825
0.010093393691135
-0.035632472946209
-0.0026601142893613
0.018983959137691
-0.13747719128824
-0.21993078680201
0.050652769350589
-0.11153827900615
0.081686681431526
-0.05270611395863
-0.20904600498594
-0.20521330581331
-0.20791242922641
-0.03481823204398
-0.195988421839
-0.15101796043644
0.084207322062939
0.11764299683332
0.025465314000277
-0.11989954192783
-0.09405199561946
0.092314008860815
0.15835409966096
-0.1589380461642
-0.16914169807368
0.046983134329273
-0.13870172192375
-0.094706352094498
0.12169549326676
-0.14866826289963
0.11495043825299
0.13297610841332
-0.073650925054203
-0.17708419363104
-0.20594276052024
0.026451868554667
-0.1007524548192
0.11276011899606
0.021404401128911
0.12404291043872
-0.20624211599991
0.0093963427171362
-0.070575178342045
-0.025168283000048
0.042478571150558
-0.036994450461261
0.06615188202455
0.052537605740318
-0.1104951995287
0.10700820707254
-0.21643090428705
0.038573429147832
-0.21667334246821
-0.11316170560136
0.0082162323692489
0.098112870328442
0.083401740541976
0.1569269422879
0.0099378285586335
-0.19851164076698
0.1350882997212
0.051911940249694
-0.18994780234213
0.07535690767148
-0.059465879571373
-0.13161148477072
0.072348245102798
-0.16820497737521
0.15407010679315
-0.044152618925532
-0.050509134522222
0.18557872098802
-0.13947474304919
-0.19383472843022
0.10813081331923
0.18211425829819
0.21632109189523
0.11384012648974
0.1605315547479
0.031815157780887
0.0011219131927286
-0.14485126540273
-0.14086006049604
-0.04444366630388
0.1611677052196
0.17975672595941
-0.031832907249377
0.19846766262016
0.080863204642572
0.014020512750454
0.024991179200585
-0.032723218266553
0.064656182497431
0.11382167463114
-0.21306886614657
-0.03616432692642
0.09894559089786
0.0089086154447264
0.15510619500029
0.11415620489909
-0.10395091969848
-0.083925336013068
-0.0052772010849805
0.16442177614872
-0.077658770399927
0.19347491221543
0.12915697741132
0.049236817880364
-0.042239179622698
-0.015998215874984
0.18196685522922
0.19678268780243
0.12346539336088
-0.18190746801526
0.052955353437424
-0.032163920443528
-0.098070887663161
0.1774990380325
0.065470497456583
-0.11147671228266
-0.12379222545925
-0.19702536579119
-0.14953309845398
-0.15096082849937
-0.18802597376437
0.0070891816323104
-0.071237800486127
0.018068881846724
-0.12766594399411
0.088802512987685
-0.015255799701538
0.18477635357909
0.064221288058355
-0.1247808993758
0.054771096698637
-0.081124574802752
0.10164429538572
0.19195732532561
0.16470379870654
0.13008439199104
-0.10800677422182
-0.058998094946077
0.20468774482983
0.13676999590398
0.19798604971917
-0.011570921347376
-0.090759408641549
0.22288612850837
0.017634275850648
-0.022107222317336
0.19294837611069
0.0010736579635211
-0.18612860716964
0.011830221931148
0.04853023083513
0.17861563212683
-0.082337429486126
0.19713465541851
-0.18076173300032
-0.066890301102522
-0.15096397422441
-0.091089431889576
0.19617011001376
-0.06056871852229
-0.085971272935522
0.11367708236641
0.07250539194668
-0.098669159429484
-0.053536894078208
0.051874730279503
-0.026854564555923
-0.15972425081796
0.12728161304638
0.19264405950147
0.2052145816693
0.03587597753384
-0.014095065002732
0.12176526804468
0.047735430409223
0.075459184739257
0.13551724543545
-0.14356841583325
-0.2048210131636
0.17349813155549
0.17280268662902
0.037801423627577
-0.068157357785224
0.17397735443112
0.00088278903345645
-0.094422367752178
-0.051137073437102
-0.0022391611927848
-0.20940862425437
0.17553978145682
-0.08875705340391
-0.10538709317916
0.20871979842808
-0.076259998752344
0.20616222494604
0.18111663119307
0.16199946189198
0.17335492950687
-0.0065534333696621
-0.16379025230007
0.12306535269573
-0.033679104926267
-0.21881818056498
0.16046028023046
0.22039424533327
-0.13878793629175
-0.19752210860387
0.16234502801068
-0.13785821197373
0.055404790246536
0.2157184628546
0.063348663374401
-0.21122043255582
-0.028415803637044
0.083677345910915
0.05498222089381
0.15511048734039
0.051280910745237
-0.002236684824761
-0.12238526378725
-0.060538479135253
-0.067611746011759
-0.035763666240189
-0.14957797724585
-0.037008649421478
0.14523851066352
-0.040881542622658
-0.18986344097904
-0.029376629599866
-0.17481805650156
-0.08295761538872
0.1799491924308
-0.13962242032226
0.0034499322960262
0.17368925968099
0.053922366003863
0.11913130805762
-0.092406494079444
0.017922855987834
-0.19063372697398
0.22163351966955
0.22021936683339
0.13488853773494
-0.043830805682417
-0.041799254571075
-0.15799824152345
0.070497456321641
0.061703004682929
0.029646762374749
0.22337165690845
0.18227548381859
-0.059823664567892
-0.033078951271619
0.10197044217243
0.11934321858338
-0.050086844884481
-0.040733022923176
0.071948857732532
-0.14098316533252
-0.012571347612156
-0.077629582969707
0.1262725065785
-0.0097523178637077
0.083962313370034
-0.023501575209871
0.098705364032001
-0.087416093087066
-0.024736708544994
-0.17985145336791
-0.029125105785381
0.13098187657046
-0.21901956927612
0.11345662460911
0.15334905746918
0.10977251667705
-0.13726537251048
-0.054536439303441
-0.091327511051219
-0.020317105313799
-0.041803040237095
-0.01380707657584
0.10584629294265
0.018968204571906
0.13624548289234
-0.20489182286257
-0.0020315995034744
0.10172471938092
-0.045977621415582
-0.16645647870331
-0.0063618244976411
-0.15936626512735
-0.048352542608354
0.20972185542261
-0.0025656841982023
0.057160473072021
0.016954519478582
0.023324117886237
-0.17878238786829
-0.15283491838454
-0.046086304957798
0.051831712494023
0.028508566993561
-0.22717538848081
0.18229011436847
0.18904575668921
-0.041339160752271
-0.10926557425239
0.039122554832018
0.07215851861719
0.045673046631446
0.1785762681536
-0.071477117060257
-0.15185035315309
-0.21968920373952
0.058861723141627
-0.069082457854073
0.040913229795318
-0.16111235659047
-0.027759096725866
-0.023202434354017
-0.22078907960542
0.0098973341773833
-0.019261563756634
0.22322750493923
0.10464779449287
-0.14913768319242
-0.040418417472559
-0.017000817877295
0.099589301316946
-0.20227959273076
0.20626452423471
-0.034055053712201
-0.20029456893171
0.057461385851357
-0.2075979972861
0.07104937814523
-0.22467947527285
0.057811177667609
-0.1806510758071
-0.081772309214042
0.097269056983672
0.16644170214383
0.097948442777389
0.090832756012808
0.14304949589988
-0.1646172398834
0.21879196405938
-0.1977183663372
0.0663176486803
-0.21197382284433
0.071276276359839
-0.18110784068045
0.17391338680563
-0.19379679983223
0.11969594900735
-0.065731995202203
-0.13682330121344
0.17124774979846
-0.19828201078069
-0.13464730863881
0.0081899412890889
0.009356391174408
-0.039392403958587
-0.10492527438311
0.044919845899616
-0.1728531891111
0.20224197110879
-0.12852929361935
0.060661501413144
-0.1215130452381
-0.22236216789309
0.17777642485824
0.035365986486798
0.07981646649786
0.088914062288013
-0.15028389089539
-0.10420925274491
0.046570991979117
-0.11100586556183
0.12736881130235
0.13349340207512
-0.20367323830135
-0.21479370211011
0.17001151135323
0.14366527943928
-0.0076724703780192
-0.14145304855967
-0.030813622502328
-0.078041137808651
-0.05488091690637
0.097066148749908
-0.10730663301315
-0.10942640387932
0.058659977117657
0.20001276524764
-0.10926498336638
-0.025247312860199
-0.0084281283301702
0.10991094388533
0.21580179618569
-0.14384867830548
0.09923271935957
0.067555887845148
-0.13971830281067
0.15071290165279
0.058063853604439
0.00038649430307471
0.17219029525984
0.15546378018826
-0.14005116495539
0.2018886549965
0.14256929421925
-0.21013965271484
-0.1813750907514
-0.01707633980142
-0.025934156984432
0.17341634025706
0.1169867024186
-0.032549673136821
-0.086020925252621
0.1534397003282
-0.013609520312068
-0.15650570924
0.14684299834159
-0.21807427563636
0.09360118851086
-0.18044848279464
-0.02576958330283
-0.03745831906089
